digraph Tree {
node [shape=box, style="filled, rounded", color="black", fontname=helvetica] ;
edge [fontname=helvetica] ;
0 [label="ca <= 0.5\ngini = 0.48\nsamples = 100.0%\nvalue = [0.41, 0.59]\nclass = No HD", fillcolor="#c4e2f7"] ;
1 [label="exang <= 0.5\n0.29\n58.7%\n[0.17, 0.83]\nNo HD", fillcolor="#63b2ea"] ;
0 -> 1 [labeldistance=2.5, labelangle=45, headlabel="True"] ;
2 [label="thal <= 2.5\n0.14\n45.3%\n[0.07, 0.93]\nNo HD", fillcolor="#49a5e7"] ;
1 -> 2 ;
3 [label="trestbps <= 147.5\n0.06\n36.0%\n[0.03, 0.97]\nNo HD", fillcolor="#40a0e6"] ;
2 -> 3 ;
4 [label="chol <= 327.5\n0.05\n32.6%\n[0.02, 0.98]\nNo HD", fillcolor="#3e9fe6"] ;
3 -> 4 ;
5 [label="0.02\n31.4%\n[0.01, 0.99]\nNo HD", fillcolor="#3c9ee5"] ;
4 -> 5 ;
6 [label="0.44\n1.2%\n[0.33, 0.67]\nNo HD", fillcolor="#9ccef2"] ;
4 -> 6 ;
7 [label="slope <= 1.5\n0.18\n3.5%\n[0.1, 0.9]\nNo HD", fillcolor="#4fa8e8"] ;
3 -> 7 ;
8 [label="0.0\n0.6%\n[1.0, 0.0]\nHD", fillcolor="#e58139"] ;
7 -> 8 ;
9 [label="0.0\n2.9%\n[0.0, 1.0]\nNo HD", fillcolor="#399de5"] ;
7 -> 9 ;
10 [label="cp <= 1.5\n0.34\n9.3%\n[0.21, 0.79]\nNo HD", fillcolor="#6fb8ec"] ;
2 -> 10 ;
11 [label="trestbps <= 119.0\n0.41\n4.7%\n[0.29, 0.71]\nNo HD", fillcolor="#88c4ef"] ;
10 -> 11 ;
12 [label="0.44\n1.7%\n[0.67, 0.33]\nHD", fillcolor="#f2c09c"] ;
11 -> 12 ;
13 [label="0.3\n2.9%\n[0.18, 0.82]\nNo HD", fillcolor="#65b3eb"] ;
11 -> 13 ;
14 [label="slope <= 0.5\n0.24\n4.7%\n[0.14, 0.86]\nNo HD", fillcolor="#5aade9"] ;
10 -> 14 ;
15 [label="0.0\n1.2%\n[0.0, 1.0]\nNo HD", fillcolor="#399de5"] ;
14 -> 15 ;
16 [label="0.3\n3.5%\n[0.18, 0.82]\nNo HD", fillcolor="#65b3eb"] ;
14 -> 16 ;
17 [label="thal <= 2.5\n0.49\n13.4%\n[0.59, 0.41]\nHD", fillcolor="#f7dac5"] ;
1 -> 17 ;
18 [label="thalach <= 125.5\n0.48\n7.0%\n[0.41, 0.59]\nNo HD", fillcolor="#c4e2f7"] ;
17 -> 18 ;
19 [label="0.0\n1.2%\n[1.0, 0.0]\nHD", fillcolor="#e58139"] ;
18 -> 19 ;
20 [label="age <= 51.5\n0.36\n5.8%\n[0.23, 0.77]\nNo HD", fillcolor="#74baed"] ;
18 -> 20 ;
21 [label="0.0\n2.9%\n[0.0, 1.0]\nNo HD", fillcolor="#399de5"] ;
20 -> 21 ;
22 [label="0.5\n2.9%\n[0.5, 0.5]\nHD", fillcolor="#ffffff"] ;
20 -> 22 ;
23 [label="oldpeak <= 0.75\n0.28\n6.4%\n[0.83, 0.17]\nHD", fillcolor="#ea9a61"] ;
17 -> 23 ;
24 [label="0.0\n1.2%\n[0.0, 1.0]\nNo HD", fillcolor="#399de5"] ;
23 -> 24 ;
25 [label="0.0\n5.2%\n[1.0, 0.0]\nHD", fillcolor="#e58139"] ;
23 -> 25 ;
26 [label="slope <= 1.5\n0.42\n41.3%\n[0.7, 0.3]\nHD", fillcolor="#f0b68c"] ;
0 -> 26 [labeldistance=2.5, labelangle=-45, headlabel="False"] ;
27 [label="restecg <= 0.5\n0.15\n21.5%\n[0.92, 0.08]\nHD", fillcolor="#e78c4b"] ;
26 -> 27 ;
28 [label="cp <= 2.5\n0.09\n12.2%\n[0.95, 0.05]\nHD", fillcolor="#e68843"] ;
27 -> 28 ;
29 [label="0.0\n11.6%\n[1.0, 0.0]\nHD", fillcolor="#e58139"] ;
28 -> 29 ;
30 [label="0.0\n0.6%\n[0.0, 1.0]\nNo HD", fillcolor="#399de5"] ;
28 -> 30 ;
31 [label="chol <= 300.5\n0.24\n9.3%\n[0.86, 0.14]\nHD", fillcolor="#e9965a"] ;
27 -> 31 ;
32 [label="age <= 47.5\n0.19\n8.1%\n[0.89, 0.11]\nHD", fillcolor="#e89050"] ;
31 -> 32 ;
33 [label="0.0\n0.6%\n[0.0, 1.0]\nNo HD", fillcolor="#399de5"] ;
32 -> 33 ;
34 [label="0.1\n7.6%\n[0.94, 0.06]\nHD", fillcolor="#e78845"] ;
32 -> 34 ;
35 [label="thal <= 1.5\n0.5\n1.2%\n[0.5, 0.5]\nHD", fillcolor="#ffffff"] ;
31 -> 35 ;
36 [label="0.0\n0.6%\n[1.0, 0.0]\nHD", fillcolor="#e58139"] ;
35 -> 36 ;
37 [label="0.0\n0.6%\n[0.0, 1.0]\nNo HD", fillcolor="#399de5"] ;
35 -> 37 ;
38 [label="sex <= 0.5\n0.5\n19.8%\n[0.49, 0.51]\nNo HD", fillcolor="#f9fcfe"] ;
26 -> 38 ;
39 [label="0.0\n5.2%\n[0.0, 1.0]\nNo HD", fillcolor="#399de5"] ;
38 -> 39 ;
40 [label="age <= 57.5\n0.45\n14.5%\n[0.65, 0.35]\nHD", fillcolor="#f3c4a3"] ;
38 -> 40 ;
41 [label="trestbps <= 129.0\n0.49\n8.1%\n[0.44, 0.56]\nNo HD", fillcolor="#d7ebfa"] ;
40 -> 41 ;
42 [label="0.44\n4.7%\n[0.67, 0.33]\nHD", fillcolor="#f2c09c"] ;
41 -> 42 ;
43 [label="0.28\n3.5%\n[0.17, 0.83]\nNo HD", fillcolor="#61b1ea"] ;
41 -> 43 ;
44 [label="age <= 67.0\n0.1\n6.4%\n[0.95, 0.05]\nHD", fillcolor="#e68844"] ;
40 -> 44 ;
45 [label="0.0\n5.2%\n[1.0, 0.0]\nHD", fillcolor="#e58139"] ;
44 -> 45 ;
46 [label="0.5\n1.2%\n[0.5, 0.5]\nHD", fillcolor="#ffffff"] ;
44 -> 46 ;
}